<?xml version="1.0"?>
<opencv_storage>
<!-- Created using Computer Vision System Toolbox(tm) for MATLAB(R) -->
<!-- Version 9.1.0.441655 (R2016b) -->
<!-- Compatible with OpenCV 2.4 -->
<cascade>
  <stageType>BOOST</stageType>
  <featureType>HOG</featureType>
  <height>32</height>
  <width>35</width>
  <stageParams>
    <boostType>GAB</boostType>
    <minHitRate>9.9500000476837158e-01</minHitRate>
    <maxFalseAlarm>1.0000000474974513e-03</maxFalseAlarm>
    <weightTrimRate>9.4999999999999996e-01</weightTrimRate>
    <maxDepth>1</maxDepth>
    <maxWeakCount>100</maxWeakCount></stageParams>
  <featureParams>
    <maxCatCount>0</maxCatCount>
    <featSize>36</featSize></featureParams>
  <stageNum>4</stageNum>
  <stages>
    <!-- stage 0 -->
    <_>
      <maxWeakCount>7</maxWeakCount>
      <stageThreshold>8.3279746770858765e-01</stageThreshold>
      <weakClassifiers>
        <_>
          <internalNodes>
            0 -1 34 1.4313243329524994e-02</internalNodes>
          <leafValues>
            9.0277779102325439e-01 -8.5380119085311890e-01</leafValues></_>
        <_>
          <internalNodes>
            0 -1 31 1.7447242513298988e-02</internalNodes>
          <leafValues>
            8.1932020187377930e-01 -7.5510430335998535e-01</leafValues></_>
        <_>
          <internalNodes>
            0 -1 42 1.4199104160070419e-02</internalNodes>
          <leafValues>
            9.1051822900772095e-01 -6.8993413448333740e-01</leafValues></_>
        <_>
          <internalNodes>
            0 -1 12 1.3782782480120659e-02</internalNodes>
          <leafValues>
            8.5013043880462646e-01 -6.5832960605621338e-01</leafValues></_>
        <_>
          <internalNodes>
            0 -1 32 1.8063556402921677e-02</internalNodes>
          <leafValues>
            7.3305332660675049e-01 -7.7712970972061157e-01</leafValues></_>
        <_>
          <internalNodes>
            0 -1 15 1.3531515374779701e-02</internalNodes>
          <leafValues>
            7.8471070528030396e-01 -7.0068913698196411e-01</leafValues></_>
        <_>
          <internalNodes>
            0 -1 9 1.5429493039846420e-02</internalNodes>
          <leafValues>
            7.1029227972030640e-01 -8.1068187952041626e-01</leafValues></_></weakClassifiers></_>
    <!-- stage 1 -->
    <_>
      <maxWeakCount>10</maxWeakCount>
      <stageThreshold>2.5033381581306458e-01</stageThreshold>
      <weakClassifiers>
        <_>
          <internalNodes>
            0 -1 45 3.3208496868610382e-02</internalNodes>
          <leafValues>
            -8.6706948280334473e-01 8.0645161867141724e-01</leafValues></_>
        <_>
          <internalNodes>
            0 -1 33 4.9675539135932922e-02</internalNodes>
          <leafValues>
            -5.8029460906982422e-01 8.2251870632171631e-01</leafValues></_>
        <_>
          <internalNodes>
            0 -1 46 2.9017781838774681e-02</internalNodes>
          <leafValues>
            -5.3177243471145630e-01 7.6926052570343018e-01</leafValues></_>
        <_>
          <internalNodes>
            0 -1 35 5.1683381199836731e-02</internalNodes>
          <leafValues>
            -4.5227482914924622e-01 9.2729336023330688e-01</leafValues></_>
        <_>
          <internalNodes>
            0 -1 23 8.2904417067766190e-03</internalNodes>
          <leafValues>
            7.1910601854324341e-01 -6.1893874406814575e-01</leafValues></_>
        <_>
          <internalNodes>
            0 -1 45 1.6435880213975906e-02</internalNodes>
          <leafValues>
            -8.1742352247238159e-01 4.7917345166206360e-01</leafValues></_>
        <_>
          <internalNodes>
            0 -1 7 8.2193985581398010e-03</internalNodes>
          <leafValues>
            8.0372530221939087e-01 -4.6142807602882385e-01</leafValues></_>
        <_>
          <internalNodes>
            0 -1 22 6.9889435544610023e-03</internalNodes>
          <leafValues>
            7.5747883319854736e-01 -4.9221113324165344e-01</leafValues></_>
        <_>
          <internalNodes>
            0 -1 41 3.3349677920341492e-02</internalNodes>
          <leafValues>
            -4.7956418991088867e-01 6.3091892004013062e-01</leafValues></_>
        <_>
          <internalNodes>
            0 -1 37 1.7048992216587067e-02</internalNodes>
          <leafValues>
            5.0515305995941162e-01 -6.6720044612884521e-01</leafValues></_></weakClassifiers></_>
    <!-- stage 2 -->
    <_>
      <maxWeakCount>20</maxWeakCount>
      <stageThreshold>-4.0381845831871033e-01</stageThreshold>
      <weakClassifiers>
        <_>
          <internalNodes>
            0 -1 8 4.7716923058032990e-02</internalNodes>
          <leafValues>
            -7.3700302839279175e-01 4.9685534834861755e-01</leafValues></_>
        <_>
          <internalNodes>
            0 -1 30 6.4369931817054749e-02</internalNodes>
          <leafValues>
            -4.0181666612625122e-01 7.5676858425140381e-01</leafValues></_>
        <_>
          <internalNodes>
            0 -1 20 3.4604512155056000e-02</internalNodes>
          <leafValues>
            -4.3055275082588196e-01 5.1438659429550171e-01</leafValues></_>
        <_>
          <internalNodes>
            0 -1 39 7.7958907932043076e-03</internalNodes>
          <leafValues>
            4.7968456149101257e-01 -4.9021351337432861e-01</leafValues></_>
        <_>
          <internalNodes>
            0 -1 1 3.5650324076414108e-02</internalNodes>
          <leafValues>
            -4.7829005122184753e-01 4.7817754745483398e-01</leafValues></_>
        <_>
          <internalNodes>
            0 -1 35 1.5569818206131458e-02</internalNodes>
          <leafValues>
            -6.0505366325378418e-01 4.4004535675048828e-01</leafValues></_>
        <_>
          <internalNodes>
            0 -1 0 8.5542857646942139e-02</internalNodes>
          <leafValues>
            -3.6815476417541504e-01 6.2700998783111572e-01</leafValues></_>
        <_>
          <internalNodes>
            0 -1 22 4.1229072958230972e-03</internalNodes>
          <leafValues>
            6.0696351528167725e-01 -3.1953862309455872e-01</leafValues></_>
        <_>
          <internalNodes>
            0 -1 44 7.6304110698401928e-03</internalNodes>
          <leafValues>
            -8.5866355895996094e-01 2.4865520000457764e-01</leafValues></_>
        <_>
          <internalNodes>
            0 -1 6 5.0292713567614555e-03</internalNodes>
          <leafValues>
            5.3291022777557373e-01 -4.0884891152381897e-01</leafValues></_>
        <_>
          <internalNodes>
            0 -1 13 2.9646296054124832e-02</internalNodes>
          <leafValues>
            -4.6361419558525085e-01 4.3027135729789734e-01</leafValues></_>
        <_>
          <internalNodes>
            0 -1 4 3.4890033304691315e-02</internalNodes>
          <leafValues>
            -3.1892377138137817e-01 5.4848188161849976e-01</leafValues></_>
        <_>
          <internalNodes>
            0 -1 26 8.8129658252000809e-03</internalNodes>
          <leafValues>
            4.1664478182792664e-01 -4.4871231913566589e-01</leafValues></_>
        <_>
          <internalNodes>
            0 -1 10 3.6428965628147125e-02</internalNodes>
          <leafValues>
            2.2966660559177399e-01 -8.1636601686477661e-01</leafValues></_>
        <_>
          <internalNodes>
            0 -1 18 3.7594053894281387e-02</internalNodes>
          <leafValues>
            -4.0415513515472412e-01 3.9388224482536316e-01</leafValues></_>
        <_>
          <internalNodes>
            0 -1 25 2.9069758951663971e-02</internalNodes>
          <leafValues>
            -3.1476733088493347e-01 5.2975523471832275e-01</leafValues></_>
        <_>
          <internalNodes>
            0 -1 21 4.4615108519792557e-02</internalNodes>
          <leafValues>
            -2.9382202029228210e-01 5.9132450819015503e-01</leafValues></_>
        <_>
          <internalNodes>
            0 -1 5 5.1287645474076271e-03</internalNodes>
          <leafValues>
            -8.1044948101043701e-01 2.1226909756660461e-01</leafValues></_>
        <_>
          <internalNodes>
            0 -1 14 6.1106808483600616e-02</internalNodes>
          <leafValues>
            -2.5211980938911438e-01 7.1972894668579102e-01</leafValues></_>
        <_>
          <internalNodes>
            0 -1 24 1.9688871689140797e-03</internalNodes>
          <leafValues>
            6.6161853075027466e-01 -2.0258164405822754e-01</leafValues></_></weakClassifiers></_>
    <!-- stage 3 -->
    <_>
      <maxWeakCount>14</maxWeakCount>
      <stageThreshold>3.4363606572151184e-01</stageThreshold>
      <weakClassifiers>
        <_>
          <internalNodes>
            0 -1 11 9.6439793705940247e-03</internalNodes>
          <leafValues>
            8.8235294818878174e-01 2.5000000000000000e-01</leafValues></_>
        <_>
          <internalNodes>
            0 -1 29 5.3696474060416222e-03</internalNodes>
          <leafValues>
            8.1192934513092041e-01 -1.6836419701576233e-01</leafValues></_>
        <_>
          <internalNodes>
            0 -1 16 1.1454296763986349e-03</internalNodes>
          <leafValues>
            8.2608258724212646e-01 -2.3579916357994080e-01</leafValues></_>
        <_>
          <internalNodes>
            0 -1 35 6.8507149815559387e-02</internalNodes>
          <leafValues>
            -3.1150609254837036e-01 8.7419533729553223e-01</leafValues></_>
        <_>
          <internalNodes>
            0 -1 2 1.2651822529733181e-02</internalNodes>
          <leafValues>
            6.6554319858551025e-01 -3.8654097914695740e-01</leafValues></_>
        <_>
          <internalNodes>
            0 -1 38 1.6412494704127312e-02</internalNodes>
          <leafValues>
            -3.2749974727630615e-01 5.9738492965698242e-01</leafValues></_>
        <_>
          <internalNodes>
            0 -1 17 1.2743206694722176e-02</internalNodes>
          <leafValues>
            3.7752279639244080e-01 -5.8453541994094849e-01</leafValues></_>
        <_>
          <internalNodes>
            0 -1 3 2.4313859641551971e-02</internalNodes>
          <leafValues>
            4.0890711545944214e-01 -5.5501127243041992e-01</leafValues></_>
        <_>
          <internalNodes>
            0 -1 36 3.8719154894351959e-02</internalNodes>
          <leafValues>
            -4.6228092908859253e-01 5.4127818346023560e-01</leafValues></_>
        <_>
          <internalNodes>
            0 -1 19 9.9968090653419495e-03</internalNodes>
          <leafValues>
            -6.5833956003189087e-01 3.3547693490982056e-01</leafValues></_>
        <_>
          <internalNodes>
            0 -1 43 7.4632897973060608e-02</internalNodes>
          <leafValues>
            2.8613999485969543e-01 -9.7077274322509766e-01</leafValues></_>
        <_>
          <internalNodes>
            0 -1 40 5.6693488731980324e-03</internalNodes>
          <leafValues>
            8.4340637922286987e-01 -3.6223798990249634e-01</leafValues></_>
        <_>
          <internalNodes>
            0 -1 27 3.1929451972246170e-02</internalNodes>
          <leafValues>
            -3.0237728357315063e-01 6.9701719284057617e-01</leafValues></_>
        <_>
          <internalNodes>
            0 -1 28 4.2239576578140259e-03</internalNodes>
          <leafValues>
            7.5636839866638184e-01 -3.8955184817314148e-01</leafValues></_></weakClassifiers></_></stages>
  <features>
    <_>
      <rect>
        0 0 8 8 1</rect></_>
    <_>
      <rect>
        0 0 8 8 18</rect></_>
    <_>
      <rect>
        0 4 8 8 4</rect></_>
    <_>
      <rect>
        0 4 8 8 35</rect></_>
    <_>
      <rect>
        0 12 8 8 7</rect></_>
    <_>
      <rect>
        0 12 8 8 25</rect></_>
    <_>
      <rect>
        0 12 8 8 34</rect></_>
    <_>
      <rect>
        0 16 8 8 17</rect></_>
    <_>
      <rect>
        4 0 8 8 2</rect></_>
    <_>
      <rect>
        4 0 8 8 6</rect></_>
    <_>
      <rect>
        4 0 8 8 8</rect></_>
    <_>
      <rect>
        4 0 8 8 29</rect></_>
    <_>
      <rect>
        4 4 8 8 9</rect></_>
    <_>
      <rect>
        4 16 8 8 24</rect></_>
    <_>
      <rect>
        4 16 8 8 31</rect></_>
    <_>
      <rect>
        8 4 8 8 11</rect></_>
    <_>
      <rect>
        8 4 8 8 12</rect></_>
    <_>
      <rect>
        8 8 8 8 12</rect></_>
    <_>
      <rect>
        8 16 8 8 4</rect></_>
    <_>
      <rect>
        8 16 8 8 21</rect></_>
    <_>
      <rect>
        8 16 8 8 22</rect></_>
    <_>
      <rect>
        12 0 8 8 13</rect></_>
    <_>
      <rect>
        12 0 8 8 31</rect></_>
    <_>
      <rect>
        12 4 8 8 12</rect></_>
    <_>
      <rect>
        12 12 8 8 13</rect></_>
    <_>
      <rect>
        12 12 8 8 18</rect></_>
    <_>
      <rect>
        12 12 8 8 33</rect></_>
    <_>
      <rect>
        16 0 8 8 5</rect></_>
    <_>
      <rect>
        16 12 8 8 14</rect></_>
    <_>
      <rect>
        16 16 8 8 25</rect></_>
    <_>
      <rect>
        16 16 8 8 28</rect></_>
    <_>
      <rect>
        0 0 8 16 18</rect></_>
    <_>
      <rect>
        0 0 8 16 19</rect></_>
    <_>
      <rect>
        0 0 8 16 24</rect></_>
    <_>
      <rect>
        0 0 16 8 10</rect></_>
    <_>
      <rect>
        0 0 16 8 14</rect></_>
    <_>
      <rect>
        0 0 16 8 18</rect></_>
    <_>
      <rect>
        0 4 16 8 9</rect></_>
    <_>
      <rect>
        0 4 16 8 21</rect></_>
    <_>
      <rect>
        0 8 16 8 32</rect></_>
    <_>
      <rect>
        0 8 16 8 33</rect></_>
    <_>
      <rect>
        0 12 16 8 8</rect></_>
    <_>
      <rect>
        0 12 16 8 32</rect></_>
    <_>
      <rect>
        0 16 16 8 11</rect></_>
    <_>
      <rect>
        0 16 16 8 29</rect></_>
    <_>
      <rect>
        0 0 16 16 1</rect></_>
    <_>
      <rect>
        0 0 16 16 28</rect></_></features></cascade>
</opencv_storage>
