<?xml version="1.0"?>
<opencv_storage>
<!-- Created using Computer Vision System Toolbox(tm) for MATLAB(R) -->
<!-- Version 9.1.0.441655 (R2016b) -->
<!-- Compatible with OpenCV 2.4 -->
<cascade>
  <stageType>BOOST</stageType>
  <featureType>HOG</featureType>
  <height>32</height>
  <width>35</width>
  <stageParams>
    <boostType>GAB</boostType>
    <minHitRate>9.9500000476837158e-01</minHitRate>
    <maxFalseAlarm>9.9999997764825821e-03</maxFalseAlarm>
    <weightTrimRate>9.4999999999999996e-01</weightTrimRate>
    <maxDepth>1</maxDepth>
    <maxWeakCount>100</maxWeakCount></stageParams>
  <featureParams>
    <maxCatCount>0</maxCatCount>
    <featSize>36</featSize></featureParams>
  <stageNum>3</stageNum>
  <stages>
    <!-- stage 0 -->
    <_>
      <maxWeakCount>6</maxWeakCount>
      <stageThreshold>2.7306881546974182e-01</stageThreshold>
      <weakClassifiers>
        <_>
          <internalNodes>
            0 -1 23 9.7758099436759949e-03</internalNodes>
          <leafValues>
            9.8461538553237915e-01 -8.1460672616958618e-01</leafValues></_>
        <_>
          <internalNodes>
            0 -1 20 1.2249658815562725e-02</internalNodes>
          <leafValues>
            9.3910545110702515e-01 -7.1179163455963135e-01</leafValues></_>
        <_>
          <internalNodes>
            0 -1 21 1.8413208425045013e-02</internalNodes>
          <leafValues>
            8.1969100236892700e-01 -7.4451100826263428e-01</leafValues></_>
        <_>
          <internalNodes>
            0 -1 24 1.0557603091001511e-02</internalNodes>
          <leafValues>
            9.4241201877593994e-01 -6.3054138422012329e-01</leafValues></_>
        <_>
          <internalNodes>
            0 -1 23 1.7677403986454010e-02</internalNodes>
          <leafValues>
            7.9744935035705566e-01 -7.1984094381332397e-01</leafValues></_>
        <_>
          <internalNodes>
            0 -1 3 4.4185794889926910e-02</internalNodes>
          <leafValues>
            -6.4918267726898193e-01 8.1286823749542236e-01</leafValues></_></weakClassifiers></_>
    <!-- stage 1 -->
    <_>
      <maxWeakCount>9</maxWeakCount>
      <stageThreshold>-2.3073525726795197e-01</stageThreshold>
      <weakClassifiers>
        <_>
          <internalNodes>
            0 -1 1 3.8818158209323883e-02</internalNodes>
          <leafValues>
            -8.9375001192092896e-01 7.4698793888092041e-01</leafValues></_>
        <_>
          <internalNodes>
            0 -1 22 4.5626092702150345e-02</internalNodes>
          <leafValues>
            -6.5467393398284912e-01 7.8114205598831177e-01</leafValues></_>
        <_>
          <internalNodes>
            0 -1 13 7.7893109992146492e-03</internalNodes>
          <leafValues>
            7.0771074295043945e-01 -6.5836608409881592e-01</leafValues></_>
        <_>
          <internalNodes>
            0 -1 26 3.3484004437923431e-02</internalNodes>
          <leafValues>
            -4.7724556922912598e-01 8.7082129716873169e-01</leafValues></_>
        <_>
          <internalNodes>
            0 -1 5 3.4219525754451752e-02</internalNodes>
          <leafValues>
            -5.4733175039291382e-01 7.0703047513961792e-01</leafValues></_>
        <_>
          <internalNodes>
            0 -1 19 2.5458708405494690e-02</internalNodes>
          <leafValues>
            6.3742351531982422e-01 -6.2860608100891113e-01</leafValues></_>
        <_>
          <internalNodes>
            0 -1 9 5.4270990192890167e-02</internalNodes>
          <leafValues>
            -4.2950236797332764e-01 8.1514722108840942e-01</leafValues></_>
        <_>
          <internalNodes>
            0 -1 10 1.1882459744811058e-02</internalNodes>
          <leafValues>
            5.9383928775787354e-01 -5.9674125909805298e-01</leafValues></_>
        <_>
          <internalNodes>
            0 -1 25 3.5265333950519562e-02</internalNodes>
          <leafValues>
            -5.1004213094711304e-01 7.6901310682296753e-01</leafValues></_></weakClassifiers></_>
    <!-- stage 2 -->
    <_>
      <maxWeakCount>13</maxWeakCount>
      <stageThreshold>6.6616398096084595e-01</stageThreshold>
      <weakClassifiers>
        <_>
          <internalNodes>
            0 -1 6 7.4951853603124619e-03</internalNodes>
          <leafValues>
            8.0000001192092896e-01 -4.0789473056793213e-01</leafValues></_>
        <_>
          <internalNodes>
            0 -1 8 5.2787899971008301e-02</internalNodes>
          <leafValues>
            -4.0599751472473145e-01 7.6724475622177124e-01</leafValues></_>
        <_>
          <internalNodes>
            0 -1 4 1.3620984740555286e-02</internalNodes>
          <leafValues>
            5.1920276880264282e-01 -5.9375411272048950e-01</leafValues></_>
        <_>
          <internalNodes>
            0 -1 12 3.0432574450969696e-02</internalNodes>
          <leafValues>
            4.0122687816619873e-01 -7.2490131855010986e-01</leafValues></_>
        <_>
          <internalNodes>
            0 -1 2 2.0943209528923035e-02</internalNodes>
          <leafValues>
            2.8413030505180359e-01 -8.5947841405868530e-01</leafValues></_>
        <_>
          <internalNodes>
            0 -1 15 1.2190856039524078e-02</internalNodes>
          <leafValues>
            6.3988971710205078e-01 -4.5105546712875366e-01</leafValues></_>
        <_>
          <internalNodes>
            0 -1 18 4.8279337584972382e-02</internalNodes>
          <leafValues>
            -3.5117587447166443e-01 7.8268128633499146e-01</leafValues></_>
        <_>
          <internalNodes>
            0 -1 16 5.1085926592350006e-02</internalNodes>
          <leafValues>
            -3.9802536368370056e-01 6.5419244766235352e-01</leafValues></_>
        <_>
          <internalNodes>
            0 -1 14 8.1683564931154251e-03</internalNodes>
          <leafValues>
            6.3468420505523682e-01 -5.5510240793228149e-01</leafValues></_>
        <_>
          <internalNodes>
            0 -1 11 2.4840127676725388e-02</internalNodes>
          <leafValues>
            -6.0006290674209595e-01 4.4106784462928772e-01</leafValues></_>
        <_>
          <internalNodes>
            0 -1 0 1.8778776749968529e-02</internalNodes>
          <leafValues>
            4.5873808860778809e-01 -5.4769909381866455e-01</leafValues></_>
        <_>
          <internalNodes>
            0 -1 7 3.1369667500257492e-02</internalNodes>
          <leafValues>
            -5.0541418790817261e-01 5.4451912641525269e-01</leafValues></_>
        <_>
          <internalNodes>
            0 -1 17 8.8685769587755203e-03</internalNodes>
          <leafValues>
            4.7577819228172302e-01 -5.2597296237945557e-01</leafValues></_></weakClassifiers></_></stages>
  <features>
    <_>
      <rect>
        0 0 8 8 8</rect></_>
    <_>
      <rect>
        0 4 8 8 1</rect></_>
    <_>
      <rect>
        0 4 8 8 6</rect></_>
    <_>
      <rect>
        0 8 8 8 0</rect></_>
    <_>
      <rect>
        0 12 8 8 20</rect></_>
    <_>
      <rect>
        0 12 8 8 24</rect></_>
    <_>
      <rect>
        0 12 8 8 35</rect></_>
    <_>
      <rect>
        0 16 8 8 7</rect></_>
    <_>
      <rect>
        4 0 8 8 2</rect></_>
    <_>
      <rect>
        4 4 8 8 1</rect></_>
    <_>
      <rect>
        4 12 8 8 33</rect></_>
    <_>
      <rect>
        8 16 8 8 22</rect></_>
    <_>
      <rect>
        12 0 8 8 17</rect></_>
    <_>
      <rect>
        12 0 8 8 31</rect></_>
    <_>
      <rect>
        12 12 8 8 13</rect></_>
    <_>
      <rect>
        12 16 8 8 35</rect></_>
    <_>
      <rect>
        16 0 8 8 14</rect></_>
    <_>
      <rect>
        16 0 8 8 22</rect></_>
    <_>
      <rect>
        16 12 8 8 18</rect></_>
    <_>
      <rect>
        0 0 8 16 4</rect></_>
    <_>
      <rect>
        0 0 8 16 19</rect></_>
    <_>
      <rect>
        0 0 16 8 7</rect></_>
    <_>
      <rect>
        0 0 16 8 14</rect></_>
    <_>
      <rect>
        0 4 16 8 10</rect></_>
    <_>
      <rect>
        0 16 16 8 14</rect></_>
    <_>
      <rect>
        0 16 16 8 23</rect></_>
    <_>
      <rect>
        0 0 16 16 28</rect></_></features></cascade>
</opencv_storage>
