<?xml version="1.0"?>
<opencv_storage>
<!-- Created using Computer Vision System Toolbox(tm) for MATLAB(R) -->
<!-- Version 9.1.0.441655 (R2016b) -->
<!-- Compatible with OpenCV 2.4 -->
<cascade>
  <stageType>BOOST</stageType>
  <featureType>LBP</featureType>
  <height>32</height>
  <width>35</width>
  <stageParams>
    <boostType>GAB</boostType>
    <minHitRate>9.9500000476837158e-01</minHitRate>
    <maxFalseAlarm>1.0000000474974513e-03</maxFalseAlarm>
    <weightTrimRate>9.4999999999999996e-01</weightTrimRate>
    <maxDepth>1</maxDepth>
    <maxWeakCount>100</maxWeakCount></stageParams>
  <featureParams>
    <maxCatCount>256</maxCatCount>
    <featSize>1</featSize></featureParams>
  <stageNum>4</stageNum>
  <stages>
    <!-- stage 0 -->
    <_>
      <maxWeakCount>3</maxWeakCount>
      <stageThreshold>6.4020341634750366e-01</stageThreshold>
      <weakClassifiers>
        <_>
          <internalNodes>
            0 -1 6 1611991007 -1268969407 -2111733501 1503024033
            -535672565 -457012599 -2096782587 -198694356</internalNodes>
          <leafValues>
            -8.7854248285293579e-01 7.4400001764297485e-01</leafValues></_>
        <_>
          <internalNodes>
            0 -1 13 1916945535 -719092907 295309701 1226522673
            -1423471022 -2030043123 -939376535 -1093629917</internalNodes>
          <leafValues>
            -9.0309000015258789e-01 8.0712538957595825e-01</leafValues></_>
        <_>
          <internalNodes>
            0 -1 4 -116058985 -711720560 452989081 -2129002231 276830268
            -385318725 -2147251949 -1079492448</internalNodes>
          <leafValues>
            -9.1092193126678467e-01 8.1219208240509033e-01</leafValues></_></weakClassifiers></_>
    <!-- stage 1 -->
    <_>
      <maxWeakCount>5</maxWeakCount>
      <stageThreshold>4.7525429725646973e-01</stageThreshold>
      <weakClassifiers>
        <_>
          <internalNodes>
            0 -1 7 -207332907 -645717947 2101843 -855039726 -1450781813
            -1289191422 -1337332991 -105373280</internalNodes>
          <leafValues>
            -9.0946501493453979e-01 7.5193798542022705e-01</leafValues></_>
        <_>
          <internalNodes>
            0 -1 15 -780051113 -981464871 33025 -717029229 -2134782687
            -930248702 -131950516 -76891902</internalNodes>
          <leafValues>
            -8.8773840665817261e-01 7.9365020990371704e-01</leafValues></_>
        <_>
          <internalNodes>
            0 -1 10 1901711799 -610729975 1343848645 1297190925
            -1031649017 757205005 1351411041 -71964940</internalNodes>
          <leafValues>
            -9.1922265291213989e-01 7.9317575693130493e-01</leafValues></_>
        <_>
          <internalNodes>
            0 -1 14 1604277055 -238747509 -1744463541 -952024768
            -2146803451 -368967040 2022179649 -338902255</internalNodes>
          <leafValues>
            -9.0050363540649414e-01 7.7691149711608887e-01</leafValues></_>
        <_>
          <internalNodes>
            0 -1 9 1368483005 -711917485 -176160481 -112754167 537149533
            -75431927 -1608515583 1809320064</internalNodes>
          <leafValues>
            -9.5634573698043823e-01 7.3338031768798828e-01</leafValues></_></weakClassifiers></_>
    <!-- stage 2 -->
    <_>
      <maxWeakCount>5</maxWeakCount>
      <stageThreshold>4.7328266501426697e-01</stageThreshold>
      <weakClassifiers>
        <_>
          <internalNodes>
            0 -1 12 -116271649 -654245719 289434347 -1273428863
            1216384062 -939523437 -2004729792 -1461977040</internalNodes>
          <leafValues>
            -8.2995951175689697e-01 6.4800000190734863e-01</leafValues></_>
        <_>
          <internalNodes>
            0 -1 17 -1287269923 -668908476 -779993023 1212433476
            -1868519375 -729184183 -507135967 -91434776</internalNodes>
          <leafValues>
            -8.6008900403976440e-01 7.1439605951309204e-01</leafValues></_>
        <_>
          <internalNodes>
            0 -1 0 -1458334479 -788331391 692125697 -2128666621
            -1878421309 -1642004350 -1557065233 -880587643</internalNodes>
          <leafValues>
            -8.5582357645034790e-01 7.8500628471374512e-01</leafValues></_>
        <_>
          <internalNodes>
            0 -1 8 -788475529 295649473 -2130193967 -778713652
            -2144845629 -1207925620 -1550153391 2025101985</internalNodes>
          <leafValues>
            -8.2545059919357300e-01 7.8671330213546753e-01</leafValues></_>
        <_>
          <internalNodes>
            0 -1 5 2068012015 1405207569 -2147416943 -788164567
            -1064828373 545947656 -1610585847 -11479506</internalNodes>
          <leafValues>
            -8.2000315189361572e-01 8.4393918514251709e-01</leafValues></_></weakClassifiers></_>
    <!-- stage 3 -->
    <_>
      <maxWeakCount>5</maxWeakCount>
      <stageThreshold>3.8720825314521790e-01</stageThreshold>
      <weakClassifiers>
        <_>
          <internalNodes>
            0 -1 1 -1051461206 -988806896 -922742631 -1324679119
            -2012708694 570556545 -2013100377 -74200909</internalNodes>
          <leafValues>
            -8.2258063554763794e-01 6.4516127109527588e-01</leafValues></_>
        <_>
          <internalNodes>
            0 -1 16 -485604513 -1856978791 -2063580969 -749698379 166417
            -1474690559 -2146881392 -668688257</internalNodes>
          <leafValues>
            -8.7100666761398315e-01 6.6028028726577759e-01</leafValues></_>
        <_>
          <internalNodes>
            0 -1 11 -1588260481 -1321009023 -1878900451 -1637744359
            -2146168828 -1434222319 949007383 -625940447</internalNodes>
          <leafValues>
            -8.6813926696777344e-01 6.6021442413330078e-01</leafValues></_>
        <_>
          <internalNodes>
            0 -1 3 -2112401169 -1795075775 33559827 1350598659
            -2129526760 -1476378584 -1072659696 -77414085</internalNodes>
          <leafValues>
            -8.4147143363952637e-01 7.6311701536178589e-01</leafValues></_>
        <_>
          <internalNodes>
            0 -1 2 -292714122 -1811607529 218169480 -1199034351
            327910931 -2126479200 -1333139306 -1551914613</internalNodes>
          <leafValues>
            -7.8148543834686279e-01 7.9431062936782837e-01</leafValues></_></weakClassifiers></_></stages>
  <features>
    <_>
      <rect>
        0 0 2 4</rect></_>
    <_>
      <rect>
        0 1 4 3</rect></_>
    <_>
      <rect>
        0 20 1 1</rect></_>
    <_>
      <rect>
        0 21 3 3</rect></_>
    <_>
      <rect>
        6 24 3 2</rect></_>
    <_>
      <rect>
        7 26 1 2</rect></_>
    <_>
      <rect>
        8 21 1 2</rect></_>
    <_>
      <rect>
        12 19 3 4</rect></_>
    <_>
      <rect>
        13 21 2 1</rect></_>
    <_>
      <rect>
        13 26 3 2</rect></_>
    <_>
      <rect>
        16 16 3 4</rect></_>
    <_>
      <rect>
        18 3 2 1</rect></_>
    <_>
      <rect>
        21 22 2 1</rect></_>
    <_>
      <rect>
        23 1 2 3</rect></_>
    <_>
      <rect>
        24 5 1 3</rect></_>
    <_>
      <rect>
        25 0 3 5</rect></_>
    <_>
      <rect>
        27 3 2 2</rect></_>
    <_>
      <rect>
        30 13 1 1</rect></_></features></cascade>
</opencv_storage>
